{
  "description": "Full-prior ordered two-exponential population NPE using the single-decay Flow2 residual NSF/randperm training recipe, with invertible ridge target (log(A1 + A2), log(A1/A2), log k1, log Delta k, log sigma).",
  "device": "mps",
  "evaluation": {
    "best_individual_nll": -3.1844226034164427,
    "ensemble_gap_to_floor": 0.08188029619224015,
    "ensemble_nll": {
      "max": 10.486823582144307,
      "mean": -3.197934825143655,
      "median": -3.2608468257355248,
      "min": -11.179984898119088,
      "n": 10000,
      "q01": -8.567469685621825,
      "q05": -7.056506439037,
      "q95": 0.7837077010447606,
      "q99": 2.9537985314423914,
      "std": 2.385701496770509,
      "std_error": 0.02385701496770509
    },
    "evaluation_seconds": 49.700562832993455,
    "floor": {
      "coordinate_target": "(log(A1 + A2), log(A1/A2), log k1, log Delta k, log sigma)",
      "diagnostics": {
        "ess_mean": 88.45557202441753,
        "ess_median": 48.467805095692576,
        "ess_min": 1.2728671247120529,
        "ess_q05": 4.698477764742155,
        "floor_method": "importance",
        "importance_batch_size": 16.0,
        "importance_samples": 8192.0,
        "log_weight_std_mean": 201367236626.91486,
        "log_weight_std_q95": 555940.1455632324,
        "prior_mixture": 0.020000000000000004,
        "proposal_inflation": 1.0,
        "relative_ess_mean": 0.010797799319386906,
        "relative_ess_q05": 0.0005735446490163764
      },
      "estimate": -3.2798151213358944,
      "method": "Ordered two-exponential ridge-coordinate posterior with raw-coordinate evidence estimated by Gaussian-mixture importance sampling around the profile fit and validation draw, 8192 samples per signal.",
      "standard_error": 0.02424658850162358,
      "summary": {
        "max": 11.560284769099994,
        "mean": -3.2798151213358944,
        "median": -3.324660325915219,
        "min": -12.066817514983097,
        "n": 10000,
        "q01": -8.856155845077557,
        "q05": -7.224561142560585,
        "q95": 0.7462419947873539,
        "q99": 2.9661054712922335,
        "std": 2.424658850162358,
        "std_error": 0.02424658850162358
      }
    },
    "gap_z_score": 20.540255509053086,
    "individual_nll": [
      {
        "max": 10.226277351379395,
        "mean": -3.133111909675598,
        "median": -3.222886800765991,
        "min": -10.74044132232666,
        "n": 10000,
        "q01": -8.314275350570679,
        "q05": -6.841031646728515,
        "q95": 0.8404049396514881,
        "q99": 3.100650668144229,
        "std": 2.3564908698784435,
        "std_error": 0.023564908698784436
      },
      {
        "max": 23.11072540283203,
        "mean": -3.1752354170560837,
        "median": -3.247603416442871,
        "min": -11.656696319580078,
        "n": 10000,
        "q01": -8.660153284072877,
        "q05": -7.052275991439819,
        "q95": 0.8973728418350191,
        "q99": 3.3088190793991172,
        "std": 2.4547430099146093,
        "std_error": 0.024547430099146093
      },
      {
        "max": 14.632600784301758,
        "mean": -3.1840803209066393,
        "median": -3.2529916763305664,
        "min": -11.191522598266602,
        "n": 10000,
        "q01": -8.67951069831848,
        "q05": -7.059469842910767,
        "q95": 0.8265978813171381,
        "q99": 3.33909474849701,
        "std": 2.441855084071883,
        "std_error": 0.024418550840718832
      },
      {
        "max": 15.064778327941895,
        "mean": -3.1844226034164427,
        "median": -3.2614455223083496,
        "min": -11.258359909057617,
        "n": 10000,
        "q01": -8.684479160308838,
        "q05": -7.0794343709945675,
        "q95": 0.8542854189872664,
        "q99": 3.2389961290359555,
        "std": 2.4299695777461356,
        "std_error": 0.024299695777461355
      }
    ],
    "paired_gap_standard_error": 0.003986332894259837,
    "paired_gap_summary": {
      "max": 4.964320236327805,
      "mean": 0.08188029619224015,
      "median": 0.05427871358494052,
      "min": -3.4385164303612905,
      "n": 10000,
      "q01": -0.9824490352280899,
      "q05": -0.44789625622993656,
      "q95": 0.674504829666035,
      "q99": 1.3879405914523455,
      "std": 0.39863328942598364,
      "std_error": 0.003986332894259837
    },
    "validation_examples": 10000,
    "validation_seed": 20260705
  },
  "kind": "two_exp_population_flow2_residual_nsf_ensemble",
  "members": [
    {
      "member_summary": {
        "best_val_nll_standardized": -0.3694682717323303,
        "best_val_nll_target_units": -3.174404425649316,
        "config": {
          "adam_beta1": 0.9,
          "adam_beta2": 0.999,
          "adam_eps": 1e-08,
          "batch_size": 512,
          "batching_mode": "pre_shuffle",
          "context_features": "raw",
          "ema_decay": 0.0,
          "epochs": 120,
          "families": [
            "spline_flow"
          ],
          "flow_activation": "relu",
          "flow_context_dim": 64,
          "flow_kind": "nsf",
          "flow_layers": 2,
          "flow_passes": 0,
          "flow_randperm": true,
          "flow_residual": true,
          "grad_clip_norm": 20.0,
          "hidden_dim": 80,
          "hidden_layers": 2,
          "learning_rate": 0.00325,
          "loss_tail_weight": 3.0,
          "loss_weight_mode": "none",
          "lr_decay_epochs": 0,
          "lr_eta_min": 0.0,
          "lr_schedule": "cosine_step",
          "lr_warmup_steps": 500,
          "max_optimizer_steps": 0,
          "mdn_components": 5,
          "observed_seed": 20261171,
          "posterior_samples": 0,
          "progress_jsonl": "runs/06_two_exponential/03_population_npe/27_flow2_ridge_full_prior_1m_ensemble4_converge_e120/member_01_seed20261171/results/training_progress.jsonl",
          "progress_nll_offset": -2.8049361539169855,
          "reference_grid_size": 0,
          "requested_device": "auto",
          "seed": 20261171,
          "skip_training_validation": false,
          "spline_bins": 8,
          "target_ridge": 0.001,
          "target_transform": "none",
          "torch_compile": "none",
          "train_sampler": "random",
          "train_simulations": 1048576,
          "val_simulations": 65536,
          "validation_every_epochs": 1,
          "weight_decay": 0.0002
        },
        "data_seconds": 45.08792654197896,
        "epochs_completed": 52,
        "final_train_nll_standardized": -0.36709524701745977,
        "final_train_nll_target_units": -3.1720314009344452,
        "final_val_nll_standardized": -0.36645427346229553,
        "final_val_nll_target_units": -3.171390427379281,
        "history": {
          "epoch_seconds": [
            18.206704917014576,
            18.109902416996192,
            18.08926091599278,
            18.048971542011714,
            18.010793541994644,
            17.99850554097793,
            18.28912791699986,
            17.913025540998206,
            17.89668904201244,
            18.178942458005622,
            18.19999233301496,
            18.148348792019533,
            17.8361619579955,
            18.22937129199272,
            17.935171833989443,
            17.90577362498152,
            17.995765875006327,
            18.087121666991152,
            17.91657329100417,
            18.121233832993312,
            18.290507166995667,
            18.066656290990068,
            18.101187749998644,
            18.112154000002192,
            17.89935379201779,
            17.949474916997133,
            17.96766620798735,
            18.069552250002744,
            17.909487500000978,
            18.036475042026723,
            17.816234917001566,
            18.012617250002222,
            17.869929834007053,
            18.34720770799322,
            18.08771200000774,
            17.93000175000634,
            17.87138608301757,
            17.741500417003408,
            17.91495050000958,
            17.984334042004775,
            17.858591416996205,
            17.743949708994478,
            17.90068424999481,
            17.868955083016772,
            18.02522729098564,
            18.06743524997728,
            18.017919250007253,
            18.104946833016584,
            17.757954582979437,
            17.988860375015065,
            18.08034754198161,
            18.069526708015474
          ],
          "lr": [
            6.5e-06,
            0.003249680554076594,
            0.0032482764168299334,
            0.0032457552265944553,
            0.00324211871831996,
            0.003237369394459154,
            0.00323151052324554,
            0.0032245461364444903,
            0.0032164810265786835,
            0.0032073207436302455,
            0.003197071591221504,
            0.0031857406222771537,
            0.003173335634170813,
            0.0031598651633593096,
            0.0031453384795083277,
            0.003129765579113486,
            0.003113157178621312,
            0.0030955247070547564,
            0.0030768802981483248,
            0.003057236781998279,
            0.0030366076762336587,
            0.0030150071767141443,
            0.0029924501477612488,
            0.0029689521119294396,
            0.002944529239324383,
            0.002919198336475491,
            0.002892976834770538,
            0.0028658827784603783,
            0.0028379348122417923,
            0.0028091521684272197,
            0.0027795546537100527,
            0.0027491626355347428,
            0.0027179970280810377,
            0.002686079277871897,
            0.0026534313490151713,
            0.002620075708089015,
            0.002586035308681611,
            0.002551333575595758,
            0.0025159943887290517,
            0.0024800420666411175,
            0.002443501349818807,
            0.002406397383651111,
            0.002368755701125435,
            0.0023306022052571552,
            0.0022919631512645,
            0.00225286512850114,
            0.0022133350421587677,
            0.002173400094752407,
            0.002133087767401049,
            0.002092425800916612,
            0.002051442176714138,
            0.002010165097556546
          ],
          "optimizer_steps": [
            2048,
            4096,
            6144,
            8192,
            10240,
            12288,
            14336,
            16384,
            18432,
            20480,
            22528,
            24576,
            26624,
            28672,
            30720,
            32768,
            34816,
            36864,
            38912,
            40960,
            43008,
            45056,
            47104,
            49152,
            51200,
            53248,
            55296,
            57344,
            59392,
            61440,
            63488,
            65536,
            67584,
            69632,
            71680,
            73728,
            75776,
            77824,
            79872,
            81920,
            83968,
            86016,
            88064,
            90112,
            92160,
            94208,
            96256,
            98304,
            100352,
            102400,
            104448,
            106496
          ],
          "train_nll": [
            0.6270312065139478,
            -0.04059174431677093,
            -0.10744580440359641,
            -0.14073778172723905,
            -0.16397949336351303,
            -0.18295413736223054,
            -0.21332298278684902,
            -0.21696521580042827,
            -0.2301436972884403,
            -0.24335126825280895,
            -0.25485541982516224,
            -0.2577513681058008,
            -0.2614263127416052,
            -0.24791843921229884,
            -0.2700423918004162,
            -0.2719071790147609,
            -0.28650359987204865,
            -0.2895561876721331,
            -0.29765779965691763,
            -0.2461250718579322,
            -0.26610420937686285,
            -0.2872981079076453,
            -0.29749707859491537,
            -0.3099534330717688,
            -0.3022307404021376,
            -0.30667042978438985,
            -0.31794318847687464,
            -0.32147154854374094,
            -0.31660313477914315,
            -0.32361468745875754,
            -0.322588500666825,
            -0.3199908992255587,
            -0.32900678683654405,
            -0.331043186099123,
            -0.33352898132579867,
            -0.32457303124920145,
            -0.3362962002247514,
            -0.3333043156490021,
            -0.3401559082954009,
            -0.3385487913283214,
            -0.3198625213244668,
            -0.34656463929241,
            -0.33772011062319507,
            -0.34847778383573313,
            -0.3491621693192428,
            -0.3483700150140976,
            -0.35300769704008417,
            -0.3532069260309072,
            -0.35994072284120193,
            -0.3514249419076805,
            -0.36037939161178656,
            -0.36709524701745977
          ],
          "train_seconds": [
            18.140934916998958,
            18.04096633300651,
            18.02294370799791,
            17.981104958016658,
            17.941527666989714,
            17.9313463329745,
            18.22348983300617,
            17.8459200829966,
            17.82957562498632,
            18.10807349998504,
            18.128157375002047,
            18.07749395800056,
            17.76881437501288,
            18.15761733299587,
            17.867844415974105,
            17.84127412500675,
            17.928132792003453,
            18.021960500016576,
            17.85233862500172,
            18.051704624987906,
            18.223032083013095,
            17.999414999998407,
            18.033266957994783,
            18.043976541986922,
            17.830626249982743,
            17.881965625012526,
            17.89996587499627,
            18.004812375002075,
            17.84067279199371,
            17.967978458997095,
            17.748545499984175,
            17.940741958009312,
            17.80399633399793,
            18.275538916990627,
            18.00980466598412,
            17.862673459021607,
            17.80777879199013,
            17.671369374991627,
            17.84481991699431,
            17.914832958980696,
            17.792939083010424,
            17.67653858300764,
            17.83361520798644,
            17.80260791600449,
            17.954588207998313,
            17.997256959002698,
            17.94837833297788,
            18.040895917016314,
            17.687176042003557,
            17.92176166700665,
            18.011146292003104,
            18.00291425001342
          ],
          "val_evaluated": [
            true,
            true,
            true,
            true,
            true,
            true,
            true,
            true,
            true,
            true,
            true,
            true,
            true,
            true,
            true,
            true,
            true,
            true,
            true,
            true,
            true,
            true,
            true,
            true,
            true,
            true,
            true,
            true,
            true,
            true,
            true,
            true,
            true,
            true,
            true,
            true,
            true,
            true,
            true,
            true,
            true,
            true,
            true,
            true,
            true,
            true,
            true,
            true,
            true,
            true,
            true,
            true
          ],
          "val_nll": [
            0.02029375173151493,
            -0.05613802373409271,
            -0.09165223687887192,
            -0.17112714052200317,
            -0.1461164355278015,
            -0.1785629689693451,
            -0.1538974642753601,
            -0.18735477328300476,
            -0.2912038564682007,
            -0.3098362684249878,
            -0.24572712182998657,
            -0.30135154724121094,
            -0.2959127426147461,
            -0.3084825575351715,
            -0.21045157313346863,
            -0.27818214893341064,
            -0.22033610939979553,
            -0.32432061433792114,
            -0.3000062108039856,
            -0.32180851697921753,
            -0.2233746200799942,
            -0.3252168297767639,
            -0.3364832401275635,
            -0.30903780460357666,
            -0.296283483505249,
            -0.350309282541275,
            -0.3447091579437256,
            -0.3694682717323303,
            -0.3339921832084656,
            -0.2792336046695709,
            -0.3072604835033417,
            -0.31784653663635254,
            -0.3488375246524811,
            -0.3026473820209503,
            -0.29379937052726746,
            -0.3276107609272003,
            -0.3581581115722656,
            -0.33866220712661743,
            -0.2962965667247772,
            -0.3298773467540741,
            -0.3433707058429718,
            -0.3357585668563843,
            -0.3466489911079407,
            -0.3466809391975403,
            -0.35857024788856506,
            -0.36304402351379395,
            -0.3561713993549347,
            -0.3307357430458069,
            -0.33532214164733887,
            -0.3418334722518921,
            -0.36821237206459045,
            -0.36645427346229553
          ],
          "val_seconds": [
            0.06571483399602585,
            0.06887000001734123,
            0.06625383399659768,
            0.06779820800875314,
            0.06919708297937177,
            0.06709079199936241,
            0.06557516698376276,
            0.06704600001103245,
            0.06704449999961071,
            0.07079854200128466,
            0.07176558399805799,
            0.07077579101314768,
            0.06727637501899153,
            0.07169104198692366,
            0.06724920801934786,
            0.0644327079935465,
            0.06757412498700432,
            0.06509108300087973,
            0.06417349999537691,
            0.06946374999824911,
            0.06742495801881887,
            0.06717145800939761,
            0.06785354198655114,
            0.06810937501722947,
            0.06866487499792129,
            0.06745150001370348,
            0.06764062499860302,
            0.06466916701174341,
            0.0687598749937024,
            0.0684336670092307,
            0.0676100839918945,
            0.07180583299486898,
            0.06586333402083255,
            0.07159891599440016,
            0.07783729198854417,
            0.06724995898548514,
            0.06354524998459965,
            0.07006991698290221,
            0.07006170798558742,
            0.06943183398107067,
            0.06558054199558683,
            0.06734816601965576,
            0.06700716700288467,
            0.06627637500059791,
            0.07056783398729749,
            0.07010800001444295,
            0.0694782079954166,
            0.06398308300413191,
            0.07071958301821724,
            0.06703033301164396,
            0.06913695801631548,
            0.06654908301425166
          ]
        },
        "loss_weight": {
          "applied": false,
          "mode": "none",
          "tail_quantile": 0.8,
          "tail_weight": 3.0
        },
        "member_index": 1,
        "model_parameters": 79430,
        "model_pt": "runs/06_two_exponential/03_population_npe/27_flow2_ridge_full_prior_1m_ensemble4_converge_e120/member_01_seed20261171/results/two_exp_population_spline_flow_model.pt",
        "optimizer_steps": 106496,
        "seed": 20261171,
        "training_seconds": 936.6015608749876,
        "two_exp_target_mode": "direct",
        "x_mean": [
          0.4911654591560364,
          -1.267927885055542,
          0.4634905755519867,
          0.15463075041770935,
          -1.4581135511398315,
          4.723440647125244,
          4.2857346534729,
          3.9127414226531982,
          3.5897812843322754,
          3.309138059616089,
          3.062276601791382,
          2.8436784744262695,
          2.649592638015747,
          2.4742863178253174,
          2.317864418029785,
          2.17592191696167,
          2.047165632247925,
          1.9296715259552002,
          1.8212254047393799,
          1.7225730419158936,
          1.6314070224761963,
          1.5472931861877441,
          1.4690895080566406,
          1.3975520133972168,
          1.3295786380767822,
          1.2672152519226074,
          1.2083832025527954,
          1.1531590223312378,
          1.1012284755706787,
          1.053168535232544,
          1.0075162649154663,
          0.9644451141357422,
          0.9248820543289185,
          0.8861995339393616,
          0.8502785563468933,
          0.816512942314148,
          0.783693790435791,
          0.7525243759155273,
          0.7241500616073608,
          0.6958051919937134,
          0.6695898175239563,
          0.6450964212417603,
          0.6209453344345093,
          0.5986101031303406,
          0.5765052437782288,
          0.556036114692688,
          0.5358710885047913,
          0.5179854035377502,
          0.4999520778656006,
          0.48266181349754333
        ],
        "x_std": [
          1.1579930782318115,
          0.643892765045166,
          1.0664089918136597,
          0.6078804135322571,
          0.6489139199256897,
          2.358341693878174,
          2.176041603088379,
          2.034492254257202,
          1.91917884349823,
          1.8231077194213867,
          1.7396652698516846,
          1.6665349006652832,
          1.6013911962509155,
          1.5414098501205444,
          1.4879628419876099,
          1.4381276369094849,
          1.3914437294006348,
          1.3484410047531128,
          1.3077805042266846,
          1.2698761224746704,
          1.2335686683654785,
          1.200555443763733,
          1.1676357984542847,
          1.1374231576919556,
          1.1082379817962646,
          1.0802290439605713,
          1.0546929836273193,
          1.0292021036148071,
          1.0044794082641602,
          0.9815303683280945,
          0.9584705233573914,
          0.9369962811470032,
          0.916691780090332,
          0.8960888981819153,
          0.8775964975357056,
          0.8588473796844482,
          0.8417079448699951,
          0.8246048092842102,
          0.8080028891563416,
          0.7919385433197021,
          0.7761641144752502,
          0.7622928619384766,
          0.7476831078529358,
          0.7338899970054626,
          0.7204928398132324,
          0.707678496837616,
          0.694980800151825,
          0.6833493113517761,
          0.6710166931152344,
          0.6597787737846375
        ],
        "z_log_det": -2.8049361539169855,
        "z_mean": [
          1.4452325105667114,
          0.5797211527824402,
          -1.049665927886963,
          -0.2874120771884918,
          -1.3864020109176636
        ],
        "z_std": [
          0.46097931265830994,
          0.8846191167831421,
          0.5503355860710144,
          0.5998435020446777,
          0.44949865341186523
        ]
      },
      "model_pt": "runs/06_two_exponential/03_population_npe/27_flow2_ridge_full_prior_1m_ensemble4_converge_e120/member_01_seed20261171/results/two_exp_population_spline_flow_model.pt",
      "summary_json": "runs/06_two_exponential/03_population_npe/27_flow2_ridge_full_prior_1m_ensemble4_converge_e120/member_01_seed20261171/results/two_exp_population_member_summary.json"
    },
    {
      "member_summary": {
        "best_val_nll_standardized": -0.40944308042526245,
        "best_val_nll_target_units": -3.2181745441606946,
        "config": {
          "adam_beta1": 0.9,
          "adam_beta2": 0.999,
          "adam_eps": 1e-08,
          "batch_size": 512,
          "batching_mode": "pre_shuffle",
          "context_features": "raw",
          "ema_decay": 0.0,
          "epochs": 120,
          "families": [
            "spline_flow"
          ],
          "flow_activation": "relu",
          "flow_context_dim": 64,
          "flow_kind": "nsf",
          "flow_layers": 2,
          "flow_passes": 0,
          "flow_randperm": true,
          "flow_residual": true,
          "grad_clip_norm": 20.0,
          "hidden_dim": 80,
          "hidden_layers": 2,
          "learning_rate": 0.00325,
          "loss_tail_weight": 3.0,
          "loss_weight_mode": "none",
          "lr_decay_epochs": 0,
          "lr_eta_min": 0.0,
          "lr_schedule": "cosine_step",
          "lr_warmup_steps": 500,
          "max_optimizer_steps": 0,
          "mdn_components": 5,
          "observed_seed": 20261172,
          "posterior_samples": 0,
          "progress_jsonl": "runs/06_two_exponential/03_population_npe/27_flow2_ridge_full_prior_1m_ensemble4_converge_e120/member_02_seed20261172/results/training_progress.jsonl",
          "progress_nll_offset": -2.808731463735432,
          "reference_grid_size": 0,
          "requested_device": "auto",
          "seed": 20261172,
          "skip_training_validation": false,
          "spline_bins": 8,
          "target_ridge": 0.001,
          "target_transform": "none",
          "torch_compile": "none",
          "train_sampler": "random",
          "train_simulations": 1048576,
          "val_simulations": 65536,
          "validation_every_epochs": 1,
          "weight_decay": 0.0002
        },
        "data_seconds": 45.37364091697964,
        "epochs_completed": 120,
        "final_train_nll_standardized": -0.45288427648483776,
        "final_train_nll_target_units": -3.26161574022027,
        "final_val_nll_standardized": -0.4094429314136505,
        "final_val_nll_target_units": -3.2181743951490827,
        "history": {
          "epoch_seconds": [
            17.957471000001533,
            18.0339221250033,
            17.811169124994194,
            17.94804037499125,
            17.750719500007108,
            18.11543237499427,
            17.7871035420103,
            17.877883750014007,
            17.808000666991575,
            17.97082175000105,
            17.71216079199803,
            17.99921862501651,
            17.86164312501205,
            18.09692145799636,
            17.866002458002185,
            18.08567708299961,
            17.862029874988366,
            17.86650958302198,
            17.974940916989,
            18.0791833330004,
            17.89544512500288,
            18.15451933298027,
            18.128390290978132,
            17.96575820900034,
            17.799837416008813,
            18.289044833014486,
            17.99825920801959,
            17.731070541020017,
            17.88680566698895,
            17.796989833004773,
            17.934487249993253,
            17.91333345801104,
            17.984583332989132,
            17.902318292006385,
            17.846819124999456,
            18.14703799999552,
            17.81972054200014,
            17.994956250011455,
            18.05313070799457,
            17.933593208988896,
            17.880859416007297,
            18.099353666999377,
            17.949320375017123,
            17.988757834013086,
            17.994577208999544,
            17.915129667002475,
            17.717388416000176,
            18.152542583004106,
            17.959916082996642,
            17.66607958401437,
            17.94931929098675,
            17.88369041698752,
            18.06653725000797,
            17.838748167006997,
            17.99656220799079,
            18.012249541992787,
            18.117435375024797,
            18.09923074999824,
            17.900565832998836,
            18.14965066598961,
            17.77150425000582,
            17.923980250023305,
            17.8875487500045,
            17.931912208005087,
            17.88658133300487,
            18.035092292004265,
            17.86509666600614,
            17.88559995801188,
            18.078094374999637,
            17.9654309170146,
            18.02941141600604,
            17.939868957997533,
            17.909379917022306,
            17.81925758399302,
            17.985750874999212,
            18.033659375010757,
            17.84933425000054,
            17.945357999997213,
            17.83440999998129,
            18.115466375020333,
            18.069956416002242,
            17.95030583400512,
            18.37752720800927,
            17.764560625015292,
            17.93149300001096,
            18.26745749998372,
            18.084759040997596,
            18.05186649999814,
            17.95003124998766,
            18.051368167012697,
            17.877656833996298,
            17.78191166598117,
            18.332387208996806,
            17.93686349998461,
            18.003782707994105,
            17.990098125010263,
            18.052124374982668,
            18.08294091699645,
            18.10446691600373,
            18.21562166698277,
            17.951012167002773,
            18.01178720901953,
            18.086721208994277,
            17.792461709002964,
            18.101673708006274,
            17.987051166011952,
            17.884013249975396,
            17.993060333014,
            18.08794416699675,
            18.11391920800088,
            17.84719866598607,
            18.20379349999712,
            17.880829083995195,
            18.047779249987798,
            17.98053416601033,
            18.083458667009836,
            17.883244083001046,
            17.98456416701083,
            17.80106358299963,
            18.726805708982283
          ],
          "lr": [
            6.5e-06,
            0.003249680554076594,
            0.0032482764168299334,
            0.0032457552265944553,
            0.00324211871831996,
            0.003237369394459154,
            0.00323151052324554,
            0.0032245461364444903,
            0.0032164810265786835,
            0.0032073207436302455,
            0.003197071591221504,
            0.0031857406222771537,
            0.003173335634170813,
            0.0031598651633593096,
            0.0031453384795083277,
            0.003129765579113486,
            0.003113157178621312,
            0.0030955247070547564,
            0.0030768802981483248,
            0.003057236781998279,
            0.0030366076762336587,
            0.0030150071767141443,
            0.0029924501477612488,
            0.0029689521119294396,
            0.002944529239324383,
            0.002919198336475491,
            0.002892976834770538,
            0.0028658827784603783,
            0.0028379348122417923,
            0.0028091521684272197,
            0.0027795546537100527,
            0.0027491626355347428,
            0.0027179970280810377,
            0.002686079277871897,
            0.0026534313490151713,
            0.002620075708089015,
            0.002586035308681611,
            0.002551333575595758,
            0.0025159943887290517,
            0.0024800420666411175,
            0.002443501349818807,
            0.002406397383651111,
            0.002368755701125435,
            0.0023306022052571552,
            0.0022919631512645,
            0.00225286512850114,
            0.0022133350421587677,
            0.002173400094752407,
            0.002133087767401049,
            0.002092425800916612,
            0.002051442176714138,
            0.002010165097556546,
            0.001968622968146916,
            0.0019268443755818818,
            0.001884858069679554,
            0.0018426929431953469,
            0.001800378011939559,
            0.0017579423948102077,
            0.0017154152937549328,
            0.001672825973675786,
            0.001630203742290667,
            0.0015875779299652898,
            0.0015449778695295698,
            0.0015024328760923533,
            0.001459972226868279,
            0.0014176251410307579,
            0.0013754207596048923,
            0.0013333881254141478,
            0.0012915561630946256,
            0.0012499536591906654,
            0.0012086092423454443,
            0.0011675513636002857,
            0.0011268082768161427,
            0.0010864080192307798,
            0.0010463783921650417,
            0.0010067469418914567,
            0.0009675409406783214,
            0.0009287873680224094,
            0.0008905128920830698,
            0.0008527438513306365,
            0.0008155062364216721,
            0.0007788256723135798,
            0.0007427274006308567,
            0.0007072362622951437,
            0.0006723766804310157,
            0.000638172643559289,
            0.0006046476890893811,
            0.0005718248871221064,
            0.0005397268245740579,
            0.0005083755896344905,
            0.0004777927565653897,
            0.0004479993708552105,
            0.00041901593473648067,
            0.0003908623930772476,
            0.00036355811965608185,
            0.00033712190383005937,
            0.00031157193760492834,
            0.0002869258031163243,
            0.0002632004605306783,
            0.00024041223637412572,
            0.0002185768122974561,
            0.00019770921428483205,
            0.00017782380231369415,
            0.00015893426047299108,
            0.00014105358754651172,
            0.00012419408806780798,
            0.00010836736385286486,
            9.358430601634671e-05,
            7.985508747690732e-05,
            6.71891559567238e-05,
            5.5595227480075045e-05,
            4.508128037543512e-05,
            3.565454978520821e-05,
            2.7321522686886904e-05,
            2.008793342905771e-05,
            1.3958759785324819e-05,
            8.938219528870178e-06,
            5.029767530004704e-06,
            2.236093378709246e-06,
            5.591195338013339e-07
          ],
          "optimizer_steps": [
            2048,
            4096,
            6144,
            8192,
            10240,
            12288,
            14336,
            16384,
            18432,
            20480,
            22528,
            24576,
            26624,
            28672,
            30720,
            32768,
            34816,
            36864,
            38912,
            40960,
            43008,
            45056,
            47104,
            49152,
            51200,
            53248,
            55296,
            57344,
            59392,
            61440,
            63488,
            65536,
            67584,
            69632,
            71680,
            73728,
            75776,
            77824,
            79872,
            81920,
            83968,
            86016,
            88064,
            90112,
            92160,
            94208,
            96256,
            98304,
            100352,
            102400,
            104448,
            106496,
            108544,
            110592,
            112640,
            114688,
            116736,
            118784,
            120832,
            122880,
            124928,
            126976,
            129024,
            131072,
            133120,
            135168,
            137216,
            139264,
            141312,
            143360,
            145408,
            147456,
            149504,
            151552,
            153600,
            155648,
            157696,
            159744,
            161792,
            163840,
            165888,
            167936,
            169984,
            172032,
            174080,
            176128,
            178176,
            180224,
            182272,
            184320,
            186368,
            188416,
            190464,
            192512,
            194560,
            196608,
            198656,
            200704,
            202752,
            204800,
            206848,
            208896,
            210944,
            212992,
            215040,
            217088,
            219136,
            221184,
            223232,
            225280,
            227328,
            229376,
            231424,
            233472,
            235520,
            237568,
            239616,
            241664,
            243712,
            245760
          ],
          "train_nll": [
            0.7264930399005607,
            0.00757833000352548,
            -0.06995457430184615,
            -0.11689954960820614,
            -0.1428409804157127,
            -0.15936429549628883,
            -0.17947011902060694,
            -0.18618523688792266,
            -0.19723441601354352,
            -0.2114321248509441,
            -0.21117059300877372,
            -0.23206484310321684,
            -0.2377505180929802,
            -0.2562352408408515,
            -0.25926667101839485,
            -0.2750976908969278,
            -0.27584731964816456,
            -0.2718205531505191,
            -0.28818488049410007,
            -0.29965345386426634,
            -0.2990322357409241,
            -0.3020849262406955,
            -0.3091623795594387,
            -0.3175897691762657,
            -0.30615186632849145,
            -0.32356895955217624,
            -0.3217368014366002,
            -0.1239394414628805,
            -0.26444141010779276,
            -0.3018491017037377,
            -0.31046339470049134,
            -0.3128655367477222,
            -0.31711628537141223,
            -0.32637435367178114,
            -0.329743125060304,
            -0.3340405788803764,
            -0.3358065497704956,
            -0.3391746042370869,
            -0.3383453190654109,
            -0.3409299983159144,
            -0.3442019213689491,
            -0.3466428500669281,
            -0.3482958489566954,
            -0.3496352864913206,
            -0.35294641450673225,
            -0.3546051328230533,
            -0.35632283226914296,
            -0.35852331856949604,
            -0.35919175029266626,
            -0.3612535514530464,
            -0.3613338661380112,
            -0.3627208966627222,
            -0.3657447685400257,
            -0.36735885109555966,
            -0.36890611264789186,
            -0.37077358309397823,
            -0.37232730345931486,
            -0.3739685167802236,
            -0.37531757770739205,
            -0.377281539791511,
            -0.3787305977257347,
            -0.3804228125773079,
            -0.38208272032352397,
            -0.3834229592666816,
            -0.3855747827110463,
            -0.384862409937341,
            -0.38743919240187097,
            -0.3890818200598005,
            -0.39178165108023677,
            -0.3717350956048904,
            -0.3932813855371933,
            -0.39666831081376586,
            -0.39948091406404274,
            -0.3989056156606239,
            -0.40109810942703916,
            -0.4033168043351907,
            -0.40470414569062996,
            -0.40702187037823023,
            -0.4055532219390443,
            -0.4099479392152716,
            -0.4101503792699077,
            -0.41146970448153297,
            -0.4125666653344524,
            -0.41647426351300965,
            -0.41775915348989656,
            -0.41723265532345977,
            -0.42085813327503274,
            -0.42224763972262735,
            -0.42354170253383927,
            -0.4251376609208819,
            -0.4267560084845172,
            -0.4276167824609729,
            -0.4294474788075604,
            -0.4304386753028666,
            -0.4322436698785168,
            -0.43354676906528766,
            -0.43473527507740073,
            -0.4359998857617029,
            -0.43719685610267334,
            -0.4389007465833856,
            -0.43976226112863515,
            -0.44064388318292913,
            -0.44235023141663987,
            -0.44323514756251825,
            -0.4442433741332934,
            -0.44517061207807274,
            -0.4463177356083179,
            -0.4471686135748314,
            -0.44803037106612464,
            -0.44876340341215837,
            -0.4494210281773121,
            -0.4501213985240611,
            -0.4506506496836664,
            -0.45115739251923515,
            -0.45163356484408723,
            -0.4520332650390628,
            -0.4523592221266881,
            -0.452596272341907,
            -0.452777891408914,
            -0.45288427648483776
          ],
          "train_seconds": [
            17.88999708299525,
            17.967617249989416,
            17.741024290997302,
            17.877369207999436,
            17.67966270900797,
            18.045188958989456,
            17.719833417009795,
            17.808240499987733,
            17.740798042010283,
            17.9026199580112,
            17.646206999983406,
            17.93320704199141,
            17.795158333989093,
            18.026896374998614,
            17.795531542011304,
            18.018913624982815,
            17.791505000001052,
            17.795839000027627,
            17.906705333007267,
            18.012489791988628,
            17.82502225000644,
            18.091584874986438,
            18.057942040992202,
            17.895933208987117,
            17.72959354199702,
            18.22342745802598,
            17.930956665979465,
            17.66249325001263,
            17.81730716698803,
            17.736173583980417,
            17.86896516699926,
            17.84779966599308,
            17.91755995899439,
            17.835997291986132,
            17.779760375007754,
            18.076642458996503,
            17.752930375019787,
            17.92518754201592,
            17.986785125016468,
            17.86586741701467,
            17.812448667013086,
            18.03108745897771,
            17.887412874988513,
            17.923296708002454,
            17.926348792010685,
            17.849629374977667,
            17.649447542004054,
            18.085669207997853,
            17.890193999977782,
            17.596885042003123,
            17.879924208013108,
            17.812142125010723,
            17.99729900000966,
            17.772284582984867,
            17.928584625013173,
            17.942561624979135,
            18.048043124988908,
            18.033603917021537,
            17.83079116701265,
            18.08107812498929,
            17.70529945899034,
            17.856417916016653,
            17.81827499999781,
            17.8625400000019,
            17.821301416988717,
            17.969276791991433,
            17.799027917004423,
            17.820068208005978,
            18.008439167024335,
            17.895537250005873,
            17.957909334014403,
            17.873551833006786,
            17.84018879098585,
            17.750455959001556,
            17.92446566701983,
            17.967795042000944,
            17.782731707993662,
            17.876225167012308,
            17.76467983299517,
            18.045354417001363,
            18.003600458992878,
            17.883234542008722,
            18.30857045800076,
            17.695502457994735,
            17.862072291987715,
            18.197252459009178,
            18.017979208001634,
            17.98459962499328,
            17.88331374997506,
            17.985403250000672,
            17.808664582989877,
            17.711293625005055,
            18.263974041008623,
            17.8704434579995,
            17.939663416997064,
            17.920388915983494,
            17.98258758400334,
            18.01388099999167,
            18.039166749978904,
            18.149910999985877,
            17.88603041699389,
            17.942988082999364,
            18.01987358299084,
            17.721405374992173,
            18.0338161670079,
            17.920507166010793,
            17.817877541994676,
            17.924529874988366,
            18.02273699999205,
            18.044775708025554,
            17.778633750014706,
            18.13732949999394,
            17.814043334015878,
            17.979335333016934,
            17.90940020798007,
            18.01440112502314,
            17.8132042910147,
            17.915058791986667,
            17.73619054199662,
            18.656652000005124
          ],
          "val_evaluated": [
            true,
            true,
            true,
            true,
            true,
            true,
            true,
            true,
            true,
            true,
            true,
            true,
            true,
            true,
            true,
            true,
            true,
            true,
            true,
            true,
            true,
            true,
            true,
            true,
            true,
            true,
            true,
            true,
            true,
            true,
            true,
            true,
            true,
            true,
            true,
            true,
            true,
            true,
            true,
            true,
            true,
            true,
            true,
            true,
            true,
            true,
            true,
            true,
            true,
            true,
            true,
            true,
            true,
            true,
            true,
            true,
            true,
            true,
            true,
            true,
            true,
            true,
            true,
            true,
            true,
            true,
            true,
            true,
            true,
            true,
            true,
            true,
            true,
            true,
            true,
            true,
            true,
            true,
            true,
            true,
            true,
            true,
            true,
            true,
            true,
            true,
            true,
            true,
            true,
            true,
            true,
            true,
            true,
            true,
            true,
            true,
            true,
            true,
            true,
            true,
            true,
            true,
            true,
            true,
            true,
            true,
            true,
            true,
            true,
            true,
            true,
            true,
            true,
            true,
            true,
            true,
            true,
            true,
            true,
            true
          ],
          "val_nll": [
            0.12801161408424377,
            0.010797242633998394,
            -0.03687816858291626,
            -0.1210118755698204,
            -0.1467021405696869,
            -0.22259719669818878,
            -0.19644695520401,
            -0.1590728759765625,
            -0.2407720685005188,
            -0.20226392149925232,
            -0.2231498658657074,
            -0.19047927856445312,
            -0.2635572850704193,
            -0.09298703819513321,
            -0.09257666021585464,
            -0.2617751359939575,
            -0.2330935001373291,
            -0.29473012685775757,
            -0.3112673759460449,
            -0.2968946099281311,
            -0.3109061121940613,
            -0.28891006112098694,
            -0.29713743925094604,
            -0.2854788303375244,
            -0.2806979715824127,
            -0.33199045062065125,
            -0.3031506836414337,
            -0.1900629997253418,
            -0.25631847977638245,
            -0.2864915728569031,
            -0.31633126735687256,
            -0.3145737946033478,
            -0.31908872723579407,
            -0.3510218858718872,
            -0.2867928147315979,
            -0.32544827461242676,
            -0.3056669235229492,
            -0.3442208170890808,
            -0.3445183038711548,
            -0.3238741159439087,
            -0.31291839480400085,
            -0.33449476957321167,
            -0.3347233235836029,
            -0.3364275097846985,
            -0.349321186542511,
            -0.3582615554332733,
            -0.3373347520828247,
            -0.33151793479919434,
            -0.35163170099258423,
            -0.3524888753890991,
            -0.3253522515296936,
            -0.36275240778923035,
            -0.33166614174842834,
            -0.3583330512046814,
            -0.3661195635795593,
            -0.3447878956794739,
            -0.34996384382247925,
            -0.3529658913612366,
            -0.35513168573379517,
            -0.35579991340637207,
            -0.35902899503707886,
            -0.346831738948822,
            -0.3539374768733978,
            -0.3591959774494171,
            -0.37335124611854553,
            -0.3524402379989624,
            -0.36624830961227417,
            -0.3468182384967804,
            -0.3785043954849243,
            -0.3569268584251404,
            -0.3731565475463867,
            -0.36997073888778687,
            -0.37188082933425903,
            -0.3836902976036072,
            -0.3803786337375641,
            -0.3901626765727997,
            -0.3834288418292999,
            -0.3735731840133667,
            -0.38442474603652954,
            -0.3840636610984802,
            -0.38191306591033936,
            -0.3808857500553131,
            -0.3823675811290741,
            -0.392970472574234,
            -0.38686949014663696,
            -0.38440847396850586,
            -0.3861215114593506,
            -0.39333778619766235,
            -0.37394827604293823,
            -0.3950534462928772,
            -0.39424264430999756,
            -0.39963263273239136,
            -0.39011383056640625,
            -0.39582160115242004,
            -0.40156084299087524,
            -0.4020814299583435,
            -0.4004110097885132,
            -0.4031025171279907,
            -0.40033042430877686,
            -0.40136945247650146,
            -0.4013488292694092,
            -0.40475785732269287,
            -0.40178465843200684,
            -0.40551406145095825,
            -0.40010929107666016,
            -0.40411901473999023,
            -0.4060852825641632,
            -0.4073755741119385,
            -0.40723252296447754,
            -0.40834349393844604,
            -0.40903979539871216,
            -0.4083617031574249,
            -0.40802860260009766,
            -0.4087466895580292,
            -0.40913259983062744,
            -0.40901845693588257,
            -0.40941885113716125,
            -0.40944308042526245,
            -0.40942060947418213,
            -0.4094429314136505
          ],
          "val_seconds": [
            0.06743612501304597,
            0.06624445799388923,
            0.07008075001067482,
            0.07060270800138824,
            0.07099870801903307,
            0.07017750001978129,
            0.06720354201388545,
            0.06957670900737867,
            0.0671380000130739,
            0.06813629201496951,
            0.06589845800772309,
            0.06594458300969563,
            0.06641604099422693,
            0.06996395802707411,
            0.07040220900671557,
            0.06669762497767806,
            0.07046091699157842,
            0.07061087500187568,
            0.0681747080234345,
            0.06661654097842984,
            0.07036095898365602,
            0.06286520799039863,
            0.0703991659975145,
            0.06975450000027195,
            0.07017337501747534,
            0.0655487919866573,
            0.06724341699737124,
            0.06850662498618476,
            0.06942887502373196,
            0.06074549999902956,
            0.06544929201481864,
            0.06546379200881347,
            0.06696470800670795,
            0.06624987500254065,
            0.06698283299920149,
            0.07033250000677072,
            0.0667165000049863,
            0.0696986660186667,
            0.0662769170012325,
            0.06766358399181627,
            0.06833329200162552,
            0.06819724998786114,
            0.06184499998926185,
            0.06540449999738485,
            0.06817287497688085,
            0.06544449998182245,
            0.0678903330117464,
            0.06680595802026801,
            0.06964433297980577,
            0.06913216700195335,
            0.06933283302350901,
            0.07148533299914561,
            0.06917066700407304,
            0.06639691698364913,
            0.06791574999806471,
            0.06962770799873397,
            0.06933320799726062,
            0.06555779199698009,
            0.06969195802230388,
            0.06850966697675176,
            0.06613383398507722,
            0.06749845901504159,
            0.06921183300437406,
            0.06930441700387746,
            0.06521500000962988,
            0.06575541701749898,
            0.06600495800375938,
            0.06546825001714751,
            0.06958583300001919,
            0.06981620800797828,
            0.07143145898589864,
            0.06624675000784919,
            0.06911979199503548,
            0.06873870798153803,
            0.06121725001139566,
            0.06581333398935385,
            0.06653270800597966,
            0.06906387500930578,
            0.06966287500108592,
            0.07004275001236238,
            0.06629029198666103,
            0.06701004202477634,
            0.0688895000203047,
            0.06900004198541865,
            0.06935741598135792,
            0.07012779099750333,
            0.06671008298872039,
            0.06721025001024827,
            0.06665625001187436,
            0.06589504101430066,
            0.06892562497523613,
            0.07054916600463912,
            0.06833725000615232,
            0.06636004097526893,
            0.06405075002112426,
            0.06964616698678583,
            0.06947795799351297,
            0.06898929201997817,
            0.06522991700330749,
            0.06564862499362789,
            0.06492179201450199,
            0.06873616599477828,
            0.06678054100484587,
            0.07098633400164545,
            0.06778995800414123,
            0.06647879199590534,
            0.06605475000105798,
            0.0684635000070557,
            0.06513858298421837,
            0.06907941601821221,
            0.0684874170110561,
            0.06640387498191558,
            0.06672283398802392,
            0.06837500000256114,
            0.0710648329986725,
            0.06897833300172351,
            0.06997729200520553,
            0.06943787497584708,
            0.0648075419885572,
            0.07009116699919105
          ]
        },
        "loss_weight": {
          "applied": false,
          "mode": "none",
          "tail_quantile": 0.8,
          "tail_weight": 3.0
        },
        "member_index": 2,
        "model_parameters": 79430,
        "model_pt": "runs/06_two_exponential/03_population_npe/27_flow2_ridge_full_prior_1m_ensemble4_converge_e120/member_02_seed20261172/results/two_exp_population_spline_flow_model.pt",
        "optimizer_steps": 245760,
        "seed": 20261172,
        "training_seconds": 2157.0489390829753,
        "two_exp_target_mode": "direct",
        "x_mean": [
          0.489673912525177,
          -1.2679073810577393,
          0.4646834433078766,
          0.15372656285762787,
          -1.4566868543624878,
          4.7184553146362305,
          4.282400608062744,
          3.909271240234375,
          3.5866832733154297,
          3.3059275150299072,
          3.0593996047973633,
          2.8407182693481445,
          2.646632432937622,
          2.4722084999084473,
          2.31526255607605,
          2.1738977432250977,
          2.045694351196289,
          1.9277441501617432,
          1.8194581270217896,
          1.7208856344223022,
          1.6294620037078857,
          1.5458393096923828,
          1.4681240320205688,
          1.3954070806503296,
          1.3285188674926758,
          1.2651374340057373,
          1.2067186832427979,
          1.151867151260376,
          1.100185513496399,
          1.051448106765747,
          1.0067462921142578,
          0.963702917098999,
          0.9226791262626648,
          0.8846953511238098,
          0.8488287329673767,
          0.8148851990699768,
          0.7821626663208008,
          0.75197833776474,
          0.7224175930023193,
          0.6949750185012817,
          0.6689116358757019,
          0.6430897116661072,
          0.6203901767730713,
          0.5972651839256287,
          0.575826108455658,
          0.5553742051124573,
          0.5355340838432312,
          0.516948938369751,
          0.49889954924583435,
          0.48221278190612793
        ],
        "x_std": [
          1.153672456741333,
          0.6438751816749573,
          1.0622574090957642,
          0.6075839996337891,
          0.6438112258911133,
          2.3505797386169434,
          2.1686699390411377,
          2.0276694297790527,
          1.9130871295928955,
          1.8167997598648071,
          1.7337477207183838,
          1.6611063480377197,
          1.595807671546936,
          1.5370068550109863,
          1.4820897579193115,
          1.432541012763977,
          1.3866022825241089,
          1.3433128595352173,
          1.3030165433883667,
          1.265051007270813,
          1.229099988937378,
          1.1948933601379395,
          1.1634249687194824,
          1.1328704357147217,
          1.1030641794204712,
          1.076046347618103,
          1.0492875576019287,
          1.0243147611618042,
          1.000362753868103,
          0.9770328402519226,
          0.9550915956497192,
          0.9338995218276978,
          0.9128308296203613,
          0.8933472633361816,
          0.8742209672927856,
          0.8556305766105652,
          0.8381347060203552,
          0.8207035064697266,
          0.804811954498291,
          0.7891273498535156,
          0.7735623121261597,
          0.7590910792350769,
          0.7444650530815125,
          0.7305904626846313,
          0.7178046107292175,
          0.7043666839599609,
          0.6920912265777588,
          0.6804458498954773,
          0.6691643595695496,
          0.6572336554527283
        ],
        "z_log_det": -2.808731463735432,
        "z_mean": [
          1.4445719718933105,
          0.5791570544242859,
          -1.0492768287658691,
          -0.28774696588516235,
          -1.3855856657028198
        ],
        "z_std": [
          0.46041685342788696,
          0.8836110234260559,
          0.5503446459770203,
          0.5990476012229919,
          0.44944339990615845
        ]
      },
      "model_pt": "runs/06_two_exponential/03_population_npe/27_flow2_ridge_full_prior_1m_ensemble4_converge_e120/member_02_seed20261172/results/two_exp_population_spline_flow_model.pt",
      "summary_json": "runs/06_two_exponential/03_population_npe/27_flow2_ridge_full_prior_1m_ensemble4_converge_e120/member_02_seed20261172/results/two_exp_population_member_summary.json"
    },
    {
      "member_summary": {
        "best_val_nll_standardized": -0.40993058681488037,
        "best_val_nll_target_units": -3.216176800582639,
        "config": {
          "adam_beta1": 0.9,
          "adam_beta2": 0.999,
          "adam_eps": 1e-08,
          "batch_size": 512,
          "batching_mode": "pre_shuffle",
          "context_features": "raw",
          "ema_decay": 0.0,
          "epochs": 120,
          "families": [
            "spline_flow"
          ],
          "flow_activation": "relu",
          "flow_context_dim": 64,
          "flow_kind": "nsf",
          "flow_layers": 2,
          "flow_passes": 0,
          "flow_randperm": true,
          "flow_residual": true,
          "grad_clip_norm": 20.0,
          "hidden_dim": 80,
          "hidden_layers": 2,
          "learning_rate": 0.00325,
          "loss_tail_weight": 3.0,
          "loss_weight_mode": "none",
          "lr_decay_epochs": 0,
          "lr_eta_min": 0.0,
          "lr_schedule": "cosine_step",
          "lr_warmup_steps": 500,
          "max_optimizer_steps": 0,
          "mdn_components": 5,
          "observed_seed": 20261173,
          "posterior_samples": 0,
          "progress_jsonl": "runs/06_two_exponential/03_population_npe/27_flow2_ridge_full_prior_1m_ensemble4_converge_e120/member_03_seed20261173/results/training_progress.jsonl",
          "progress_nll_offset": -2.806246213767759,
          "reference_grid_size": 0,
          "requested_device": "auto",
          "seed": 20261173,
          "skip_training_validation": false,
          "spline_bins": 8,
          "target_ridge": 0.001,
          "target_transform": "none",
          "torch_compile": "none",
          "train_sampler": "random",
          "train_simulations": 1048576,
          "val_simulations": 65536,
          "validation_every_epochs": 1,
          "weight_decay": 0.0002
        },
        "data_seconds": 45.388569875009125,
        "epochs_completed": 120,
        "final_train_nll_standardized": -0.45895419604858034,
        "final_train_nll_target_units": -3.265200409816339,
        "final_val_nll_standardized": -0.40992337465286255,
        "final_val_nll_target_units": -3.2161695884206214,
        "history": {
          "epoch_seconds": [
            17.901088875019923,
            17.854252874996746,
            18.162441541993758,
            17.969779332983308,
            17.845236041990574,
            18.20172199999797,
            17.833726540993666,
            17.747321375005413,
            17.951125166000566,
            17.992556292010704,
            17.992307583015645,
            18.29619537500548,
            17.860792709019734,
            18.184859290980967,
            18.096996750013204,
            18.075682208989747,
            18.064489875017898,
            18.14962287497474,
            18.11329825001303,
            18.03620950001641,
            18.02859824997722,
            17.767376458010403,
            17.633437292010058,
            18.196663624985376,
            17.78028308300418,
            17.938779582997086,
            18.051676832983503,
            17.96350916699157,
            17.919469665997894,
            18.529667583003175,
            18.03612195898313,
            17.9296407920192,
            17.96679762500571,
            18.11585670898785,
            17.910989583004266,
            18.231460167007754,
            18.083575832977658,
            18.022243916988373,
            18.08300679101376,
            18.126352166989818,
            18.15877391700633,
            18.05890379199991,
            18.001280083990423,
            18.31730733398581,
            17.985508291982114,
            17.998439832997974,
            17.999985917005688,
            18.049364791979315,
            18.10161800001515,
            17.992497041006573,
            17.969321334006963,
            17.94586220799829,
            18.18986966702505,
            17.776144874980673,
            18.18632974999491,
            18.02140629099449,
            17.912823833990842,
            18.08280316699529,
            17.83409633298288,
            18.01680841599591,
            17.948627375008073,
            17.997169917012798,
            17.97971720798523,
            18.03255841700593,
            18.056314665998798,
            17.633344875008333,
            17.991958291997435,
            17.738411958009237,
            17.903151375008747,
            18.224347750016022,
            17.886706749995938,
            17.796011083002668,
            17.917200208001304,
            18.036403667007107,
            17.867720083973836,
            18.00061720897793,
            17.992686415993376,
            17.922617958014598,
            17.866245374985738,
            17.81449849999626,
            17.500893916003406,
            17.866514082998037,
            17.84969433399965,
            17.809676832985133,
            17.83266575000016,
            17.915789708989905,
            18.08370708298753,
            17.866097540972987,
            18.084594625019236,
            17.85059066701797,
            17.813495582988253,
            17.582430291979108,
            18.022700375004206,
            17.96041862500715,
            17.84989595800289,
            17.71458108301158,
            18.07328954100376,
            17.751210249989526,
            17.776504207984544,
            17.870687416987494,
            17.930326333997073,
            17.60014295799192,
            17.612569874996552,
            17.92276479199063,
            17.57989379198989,
            17.53004808400874,
            17.85751841700403,
            17.80759554199176,
            17.748779749992536,
            17.833105625002645,
            17.820903707994148,
            17.69551354102441,
            17.566221374989254,
            17.924046792002628,
            17.760298917011824,
            17.5962641670194,
            18.082440750004025,
            18.064789875003044,
            17.782968499988783,
            17.831507250026334
          ],
          "lr": [
            6.5e-06,
            0.003249680554076594,
            0.0032482764168299334,
            0.0032457552265944553,
            0.00324211871831996,
            0.003237369394459154,
            0.00323151052324554,
            0.0032245461364444903,
            0.0032164810265786835,
            0.0032073207436302455,
            0.003197071591221504,
            0.0031857406222771537,
            0.003173335634170813,
            0.0031598651633593096,
            0.0031453384795083277,
            0.003129765579113486,
            0.003113157178621312,
            0.0030955247070547564,
            0.0030768802981483248,
            0.003057236781998279,
            0.0030366076762336587,
            0.0030150071767141443,
            0.0029924501477612488,
            0.0029689521119294396,
            0.002944529239324383,
            0.002919198336475491,
            0.002892976834770538,
            0.0028658827784603783,
            0.0028379348122417923,
            0.0028091521684272197,
            0.0027795546537100527,
            0.0027491626355347428,
            0.0027179970280810377,
            0.002686079277871897,
            0.0026534313490151713,
            0.002620075708089015,
            0.002586035308681611,
            0.002551333575595758,
            0.0025159943887290517,
            0.0024800420666411175,
            0.002443501349818807,
            0.002406397383651111,
            0.002368755701125435,
            0.0023306022052571552,
            0.0022919631512645,
            0.00225286512850114,
            0.0022133350421587677,
            0.002173400094752407,
            0.002133087767401049,
            0.002092425800916612,
            0.002051442176714138,
            0.002010165097556546,
            0.001968622968146916,
            0.0019268443755818818,
            0.001884858069679554,
            0.0018426929431953469,
            0.001800378011939559,
            0.0017579423948102077,
            0.0017154152937549328,
            0.001672825973675786,
            0.001630203742290667,
            0.0015875779299652898,
            0.0015449778695295698,
            0.0015024328760923533,
            0.001459972226868279,
            0.0014176251410307579,
            0.0013754207596048923,
            0.0013333881254141478,
            0.0012915561630946256,
            0.0012499536591906654,
            0.0012086092423454443,
            0.0011675513636002857,
            0.0011268082768161427,
            0.0010864080192307798,
            0.0010463783921650417,
            0.0010067469418914567,
            0.0009675409406783214,
            0.0009287873680224094,
            0.0008905128920830698,
            0.0008527438513306365,
            0.0008155062364216721,
            0.0007788256723135798,
            0.0007427274006308567,
            0.0007072362622951437,
            0.0006723766804310157,
            0.000638172643559289,
            0.0006046476890893811,
            0.0005718248871221064,
            0.0005397268245740579,
            0.0005083755896344905,
            0.0004777927565653897,
            0.0004479993708552105,
            0.00041901593473648067,
            0.0003908623930772476,
            0.00036355811965608185,
            0.00033712190383005937,
            0.00031157193760492834,
            0.0002869258031163243,
            0.0002632004605306783,
            0.00024041223637412572,
            0.0002185768122974561,
            0.00019770921428483205,
            0.00017782380231369415,
            0.00015893426047299108,
            0.00014105358754651172,
            0.00012419408806780798,
            0.00010836736385286486,
            9.358430601634671e-05,
            7.985508747690732e-05,
            6.71891559567238e-05,
            5.5595227480075045e-05,
            4.508128037543512e-05,
            3.565454978520821e-05,
            2.7321522686886904e-05,
            2.008793342905771e-05,
            1.3958759785324819e-05,
            8.938219528870178e-06,
            5.029767530004704e-06,
            2.236093378709246e-06,
            5.591195338013339e-07
          ],
          "optimizer_steps": [
            2048,
            4096,
            6144,
            8192,
            10240,
            12288,
            14336,
            16384,
            18432,
            20480,
            22528,
            24576,
            26624,
            28672,
            30720,
            32768,
            34816,
            36864,
            38912,
            40960,
            43008,
            45056,
            47104,
            49152,
            51200,
            53248,
            55296,
            57344,
            59392,
            61440,
            63488,
            65536,
            67584,
            69632,
            71680,
            73728,
            75776,
            77824,
            79872,
            81920,
            83968,
            86016,
            88064,
            90112,
            92160,
            94208,
            96256,
            98304,
            100352,
            102400,
            104448,
            106496,
            108544,
            110592,
            112640,
            114688,
            116736,
            118784,
            120832,
            122880,
            124928,
            126976,
            129024,
            131072,
            133120,
            135168,
            137216,
            139264,
            141312,
            143360,
            145408,
            147456,
            149504,
            151552,
            153600,
            155648,
            157696,
            159744,
            161792,
            163840,
            165888,
            167936,
            169984,
            172032,
            174080,
            176128,
            178176,
            180224,
            182272,
            184320,
            186368,
            188416,
            190464,
            192512,
            194560,
            196608,
            198656,
            200704,
            202752,
            204800,
            206848,
            208896,
            210944,
            212992,
            215040,
            217088,
            219136,
            221184,
            223232,
            225280,
            227328,
            229376,
            231424,
            233472,
            235520,
            237568,
            239616,
            241664,
            243712,
            245760
          ],
          "train_nll": [
            0.7686919934985781,
            -0.0026669314975151792,
            -0.08913256234154687,
            -0.12710667293276856,
            -0.16804732817945478,
            -0.1902170005773769,
            -0.21356756986779146,
            -0.21911517380613077,
            -0.24112472899923887,
            -0.2520521360120256,
            -0.2606304733394609,
            -0.26466943831383105,
            -0.2502394158191237,
            -0.2848113765612652,
            -0.1699971948332859,
            -0.1532461058118315,
            -0.2744019121259953,
            -0.28467346971592633,
            -0.29102777683419845,
            -0.2972212458407739,
            -0.29534110644272005,
            -0.30596492300719547,
            -0.30886204789385374,
            -0.31427399544918444,
            -0.2941895007556923,
            -0.3128989126544184,
            -0.31620103745444794,
            -0.32527112467323605,
            -0.3244522605482416,
            -0.3288637512760033,
            -0.33038913704513106,
            -0.3334014716256206,
            -0.33141542899193155,
            -0.3397280922563368,
            -0.3386273929363597,
            -0.3394454655071968,
            -0.34228375259408494,
            -0.34279632802190463,
            -0.34513374554444454,
            -0.3445089674551127,
            -0.3502005491463933,
            -0.3483848798805411,
            -0.35050456230328564,
            -0.35135277631843564,
            -0.3531827782644541,
            -0.3548356161554693,
            -0.35770547957781673,
            -0.35708989953218406,
            -0.35726845810586383,
            -0.35998627643857617,
            -0.3574121563724475,
            -0.3682319154358993,
            -0.36655109368621197,
            -0.3713804545477615,
            -0.3685367594662239,
            -0.37325229218549794,
            -0.3751925885399032,
            -0.37685132144906675,
            -0.37759121107592364,
            -0.3817766201377708,
            -0.381554215995493,
            -0.382864388672715,
            -0.3843041254312993,
            -0.38774427234602626,
            -0.3900076173758862,
            -0.3915799667247484,
            -0.3924995335528365,
            -0.3915351801624638,
            -0.39358906576217123,
            -0.3954234138072934,
            -0.39751293605877436,
            -0.3997184203890356,
            -0.4024357118360058,
            -0.40312357977745705,
            -0.4064013724491815,
            -0.4065079106185294,
            -0.40889141562001896,
            -0.41092576452865615,
            -0.4124607666472002,
            -0.4143128541581973,
            -0.4171459399894957,
            -0.4162129207288672,
            -0.41965803235871135,
            -0.41804894939195947,
            -0.42040451605134876,
            -0.4223665734716633,
            -0.4244211040531809,
            -0.42674494244056405,
            -0.4282570875257079,
            -0.43056677993081394,
            -0.4313185760165652,
            -0.43290108600558597,
            -0.43431283191239345,
            -0.4363499978535401,
            -0.43716867802868364,
            -0.4390639940247638,
            -0.4404379260558926,
            -0.4420477534731617,
            -0.44296822519027046,
            -0.444404473691975,
            -0.44555368825240294,
            -0.446996581806161,
            -0.4479262161075894,
            -0.4491618296451634,
            -0.4502260582803501,
            -0.4509813700133236,
            -0.4521237837507215,
            -0.45305323856155155,
            -0.45372468132700305,
            -0.4546791022639809,
            -0.4553781634531333,
            -0.4560739112275769,
            -0.45672781180473976,
            -0.45718479935021605,
            -0.4576598544299486,
            -0.4580731945225125,
            -0.45841856791230384,
            -0.45865874832088593,
            -0.45885004662704887,
            -0.45895419604858034
          ],
          "train_seconds": [
            17.831931166001596,
            17.788484874996357,
            18.094725875009317,
            17.904469125001924,
            17.77663741700235,
            18.13477404200239,
            17.769007499999134,
            17.68092462499044,
            17.886731791018974,
            17.921986542001832,
            17.9273252079729,
            18.228055707993917,
            17.793966708006337,
            18.115937041991856,
            18.02646774999448,
            18.009786917013116,
            18.00015858298866,
            18.08488383400254,
            18.044942708016606,
            17.97159354199539,
            17.960373292007716,
            17.69980816700263,
            17.56539000000339,
            18.12450987502234,
            17.70879220799543,
            17.87012966698967,
            17.987345041008666,
            17.896160417003557,
            17.855097166000633,
            18.460955582995666,
            17.971278874989366,
            17.861397083004704,
            17.898115374991903,
            18.04883908299962,
            17.839390084001934,
            18.161510999983875,
            18.011201167013496,
            17.954869083012454,
            18.005025374994148,
            18.05638395799906,
            18.09274649998406,
            17.992023416998563,
            17.933696541003883,
            18.24906579099479,
            17.917300083994633,
            17.930199875001563,
            17.9323468329967,
            17.98205945797963,
            18.035774166986812,
            17.922425416996703,
            17.901115292013856,
            17.874772125011077,
            18.12171054101782,
            17.705841584014706,
            18.118532584019704,
            17.954347499995492,
            17.84584291698411,
            18.014080916997045,
            17.766243207996013,
            17.948587291000877,
            17.881073957978515,
            17.930214833002537,
            17.908421041007387,
            17.962071750022005,
            17.988466334005352,
            17.56448962498689,
            17.922047583007952,
            17.671564999996917,
            17.8374163749977,
            18.153700208000373,
            17.82051704201149,
            17.727110749983694,
            17.852164416981395,
            17.96761449999758,
            17.800921415997436,
            17.922986667021178,
            17.923366665985668,
            17.855446250003297,
            17.799528291012393,
            17.747238957992522,
            17.433650916995248,
            17.789636000001337,
            17.78226266600541,
            17.739948958012974,
            17.763172707986087,
            17.843660999991698,
            18.013958041992737,
            17.797184791008476,
            18.01432458398631,
            17.779799540992826,
            17.74426616600249,
            17.51290779199917,
            17.955726707994472,
            17.890582791995257,
            17.78014891600469,
            17.645120291010244,
            17.996510917000705,
            17.6833976659982,
            17.706057999981567,
            17.800964333000593,
            17.862487417005468,
            17.534599499980686,
            17.542796083987923,
            17.855688458977966,
            17.513113833003445,
            17.46048345800955,
            17.79146175002097,
            17.738024708989542,
            17.678781791997608,
            17.764094459009357,
            17.7549509590026,
            17.62631337501807,
            17.49674879098893,
            17.856906375003746,
            17.693870292016072,
            17.527002292015823,
            18.008797874994343,
            17.995354667014908,
            17.711130167008378,
            17.762147166009527
          ],
          "val_evaluated": [
            true,
            true,
            true,
            true,
            true,
            true,
            true,
            true,
            true,
            true,
            true,
            true,
            true,
            true,
            true,
            true,
            true,
            true,
            true,
            true,
            true,
            true,
            true,
            true,
            true,
            true,
            true,
            true,
            true,
            true,
            true,
            true,
            true,
            true,
            true,
            true,
            true,
            true,
            true,
            true,
            true,
            true,
            true,
            true,
            true,
            true,
            true,
            true,
            true,
            true,
            true,
            true,
            true,
            true,
            true,
            true,
            true,
            true,
            true,
            true,
            true,
            true,
            true,
            true,
            true,
            true,
            true,
            true,
            true,
            true,
            true,
            true,
            true,
            true,
            true,
            true,
            true,
            true,
            true,
            true,
            true,
            true,
            true,
            true,
            true,
            true,
            true,
            true,
            true,
            true,
            true,
            true,
            true,
            true,
            true,
            true,
            true,
            true,
            true,
            true,
            true,
            true,
            true,
            true,
            true,
            true,
            true,
            true,
            true,
            true,
            true,
            true,
            true,
            true,
            true,
            true,
            true,
            true,
            true,
            true
          ],
          "val_nll": [
            0.217884361743927,
            -0.09621649235486984,
            -0.10929886996746063,
            -0.04875392094254494,
            -0.15004178881645203,
            -0.14659297466278076,
            -0.10603359341621399,
            -0.2422666847705841,
            -0.27250730991363525,
            -0.25595012307167053,
            -0.08596302568912506,
            -0.26571494340896606,
            -0.2912696301937103,
            -0.19461078941822052,
            -0.16935530304908752,
            -0.23944076895713806,
            -0.30671384930610657,
            -0.18957875669002533,
            -0.2856019139289856,
            -0.2764095067977905,
            -0.30473703145980835,
            -0.2996547818183899,
            -0.2838318347930908,
            -0.27372586727142334,
            -0.2954171895980835,
            -0.3240833282470703,
            -0.3176078498363495,
            -0.3191007375717163,
            -0.3264855444431305,
            -0.3145180940628052,
            -0.3137955367565155,
            -0.332410603761673,
            -0.32977259159088135,
            -0.312580406665802,
            -0.33679816126823425,
            -0.33592402935028076,
            -0.32925528287887573,
            -0.3196885585784912,
            -0.293878972530365,
            -0.341821551322937,
            -0.3366120457649231,
            -0.3110021948814392,
            -0.338883638381958,
            -0.3174201250076294,
            -0.311001718044281,
            -0.3368706703186035,
            -0.3246055841445923,
            -0.3475433588027954,
            -0.3347744643688202,
            -0.36095306277275085,
            -0.29572099447250366,
            -0.3446051776409149,
            -0.3036108613014221,
            -0.344671368598938,
            -0.35836607217788696,
            -0.3606550693511963,
            -0.35717082023620605,
            -0.3674863278865814,
            -0.3579900860786438,
            -0.38136234879493713,
            -0.3346138000488281,
            -0.3186251223087311,
            -0.3645486831665039,
            -0.3826967477798462,
            -0.35391855239868164,
            -0.36606740951538086,
            -0.3712212145328522,
            -0.3667730689048767,
            -0.38170602917671204,
            -0.37384796142578125,
            -0.35626715421676636,
            -0.374988317489624,
            -0.33488285541534424,
            -0.3817044496536255,
            -0.3451553285121918,
            -0.38518834114074707,
            -0.385143905878067,
            -0.3885805606842041,
            -0.3654595911502838,
            -0.38706398010253906,
            -0.3786410689353943,
            -0.38231176137924194,
            -0.39060890674591064,
            -0.38306236267089844,
            -0.3899076282978058,
            -0.37044352293014526,
            -0.3844488859176636,
            -0.3897467255592346,
            -0.39720937609672546,
            -0.3924240469932556,
            -0.38402119278907776,
            -0.3946399688720703,
            -0.40192586183547974,
            -0.3973378539085388,
            -0.3986593782901764,
            -0.40002670884132385,
            -0.4052618741989136,
            -0.4018223285675049,
            -0.40193992853164673,
            -0.3991186022758484,
            -0.4000311493873596,
            -0.40472108125686646,
            -0.4063224196434021,
            -0.4037359058856964,
            -0.40579187870025635,
            -0.4064260721206665,
            -0.40771549940109253,
            -0.4084583520889282,
            -0.40896230936050415,
            -0.4089345335960388,
            -0.4068257808685303,
            -0.40838366746902466,
            -0.40923523902893066,
            -0.4093252420425415,
            -0.40977156162261963,
            -0.4096934497356415,
            -0.40991801023483276,
            -0.4098987579345703,
            -0.40993058681488037,
            -0.40992337465286255
          ],
          "val_seconds": [
            0.06912000000011176,
            0.06570120799005963,
            0.06765529201948084,
            0.06525237500318326,
            0.06853704201057553,
            0.06688183301594108,
            0.06464745799894445,
            0.06633983299252577,
            0.06432874998426996,
            0.07050741699640639,
            0.06491870799800381,
            0.06807837501401082,
            0.06675625001662411,
            0.0688533750071656,
            0.07047145799151622,
            0.06582416701712646,
            0.06426429201383144,
            0.0646817920205649,
            0.06829454199760221,
            0.06454833300085738,
            0.06816341599915177,
            0.06750045897206292,
            0.06798695801990107,
            0.07208658300805837,
            0.0714213750034105,
            0.06857387500349432,
            0.06426537499646656,
            0.06728920800378546,
            0.06431524999788962,
            0.06865050000487827,
            0.06477599998470396,
            0.06818145900615491,
            0.06861637497786433,
            0.06694945800700225,
            0.07153008398017846,
            0.06987545799347572,
            0.0723135000152979,
            0.06730741701903753,
            0.07791345799341798,
            0.06989916702150367,
            0.06596358300885186,
            0.06681845799903385,
            0.06748162501025945,
            0.06818241698783822,
            0.06814591697184369,
            0.06817329200566746,
            0.06757245797780342,
            0.06724204099737108,
            0.06578204198740423,
            0.0700017079943791,
            0.06814054099959321,
            0.07103166700107977,
            0.06809612500364892,
            0.0702385000186041,
            0.06772820898913778,
            0.06699758398463018,
            0.06691233298624866,
            0.06865883298451081,
            0.06778599999961443,
            0.06815191599889658,
            0.06748579200939275,
            0.06689070898573846,
            0.07123470900114626,
            0.07041795901022851,
            0.06778045801911503,
            0.06879629200557247,
            0.06984199999715202,
            0.06678512500366196,
            0.06566754099912941,
            0.07057983300182968,
            0.06612195901107043,
            0.0688389579881914,
            0.06496708397753537,
            0.06871512500219978,
            0.0667312919977121,
            0.07756966701708734,
            0.06924658300704323,
            0.06710487499367446,
            0.06665099997189827,
            0.06719212501775473,
            0.06718620797619224,
            0.07681800000136718,
            0.06737258401699364,
            0.06966358300996944,
            0.06942741698003374,
            0.07206112498533912,
            0.06968249997589737,
            0.06884674998582341,
            0.07019804199808277,
            0.07072399999015033,
            0.0691616659751162,
            0.06945637500029989,
            0.06690345800598152,
            0.0697757079906296,
            0.06967762499698438,
            0.06938783402438276,
            0.07672000001184642,
            0.06775295801344328,
            0.07037850000779144,
            0.06965545800630935,
            0.0677710419986397,
            0.06547604198567569,
            0.06971199999679811,
            0.06701654198695906,
            0.06671704101609066,
            0.0694956670049578,
            0.06599954099510796,
            0.06951425000443123,
            0.06992833298863843,
            0.06893129201489501,
            0.06588491701404564,
            0.06913899999926798,
            0.06940408298396505,
            0.06707408299553208,
            0.06634770799428225,
            0.0692077919957228,
            0.07357358300941996,
            0.0693686250015162,
            0.07177425001282245,
            0.06929412498720922
          ]
        },
        "loss_weight": {
          "applied": false,
          "mode": "none",
          "tail_quantile": 0.8,
          "tail_weight": 3.0
        },
        "member_index": 3,
        "model_parameters": 79430,
        "model_pt": "runs/06_two_exponential/03_population_npe/27_flow2_ridge_full_prior_1m_ensemble4_converge_e120/member_03_seed20261173/results/two_exp_population_spline_flow_model.pt",
        "optimizer_steps": 245760,
        "seed": 20261173,
        "training_seconds": 2152.5261713749787,
        "two_exp_target_mode": "direct",
        "x_mean": [
          0.49203842878341675,
          -1.2682057619094849,
          0.46412229537963867,
          0.1552496701478958,
          -1.4578220844268799,
          4.725557327270508,
          4.28797721862793,
          3.9136884212493896,
          3.5907750129699707,
          3.3103911876678467,
          3.06322979927063,
          2.844620943069458,
          2.6496856212615967,
          2.4756317138671875,
          2.3189077377319336,
          2.1770379543304443,
          2.047682523727417,
          1.9302434921264648,
          1.8222870826721191,
          1.7230523824691772,
          1.6324175596237183,
          1.5482633113861084,
          1.4700753688812256,
          1.3973143100738525,
          1.3303160667419434,
          1.2667909860610962,
          1.2085697650909424,
          1.1535089015960693,
          1.102098822593689,
          1.0531479120254517,
          1.0075976848602295,
          0.9648080468177795,
          0.9247032403945923,
          0.8861857056617737,
          0.8501988649368286,
          0.8159406781196594,
          0.7836315631866455,
          0.7530778050422668,
          0.7237816452980042,
          0.6966075301170349,
          0.6701307892799377,
          0.6452686190605164,
          0.6208415627479553,
          0.5981911420822144,
          0.5769149661064148,
          0.5559834837913513,
          0.5359811186790466,
          0.5172725319862366,
          0.49966564774513245,
          0.48264747858047485
        ],
        "x_std": [
          1.1561973094940186,
          0.6429311037063599,
          1.0625419616699219,
          0.6077454090118408,
          0.645469069480896,
          2.359454393386841,
          2.1767525672912598,
          2.0355076789855957,
          1.9203674793243408,
          1.8236083984375,
          1.7409547567367554,
          1.6674147844314575,
          1.6018155813217163,
          1.5426971912384033,
          1.4887731075286865,
          1.4383761882781982,
          1.3922568559646606,
          1.3484790325164795,
          1.3078265190124512,
          1.2696983814239502,
          1.2334742546081543,
          1.199681043624878,
          1.1671791076660156,
          1.136467456817627,
          1.1078438758850098,
          1.0799487829208374,
          1.0534473657608032,
          1.0275143384933472,
          1.0027730464935303,
          0.9797154068946838,
          0.9572778344154358,
          0.9359925389289856,
          0.915185272693634,
          0.8949598073959351,
          0.8759605884552002,
          0.8581132888793945,
          0.8401735424995422,
          0.8230250477790833,
          0.8069629073143005,
          0.7907343506813049,
          0.7754082083702087,
          0.7605463862419128,
          0.7460460066795349,
          0.7321280241012573,
          0.7187566757202148,
          0.7060865163803101,
          0.6932633519172668,
          0.6813668012619019,
          0.6696047782897949,
          0.6578957438468933
        ],
        "z_log_det": -2.806246213767759,
        "z_mean": [
          1.4455827474594116,
          0.5791065692901611,
          -1.0499345064163208,
          -0.2872082591056824,
          -1.3866491317749023
        ],
        "z_std": [
          0.4611717164516449,
          0.8834298849105835,
          0.5501145720481873,
          0.6001585721969604,
          0.44927147030830383
        ]
      },
      "model_pt": "runs/06_two_exponential/03_population_npe/27_flow2_ridge_full_prior_1m_ensemble4_converge_e120/member_03_seed20261173/results/two_exp_population_spline_flow_model.pt",
      "summary_json": "runs/06_two_exponential/03_population_npe/27_flow2_ridge_full_prior_1m_ensemble4_converge_e120/member_03_seed20261173/results/two_exp_population_member_summary.json"
    },
    {
      "member_summary": {
        "best_val_nll_standardized": -0.42377346754074097,
        "best_val_nll_target_units": -3.2285650350506367,
        "config": {
          "adam_beta1": 0.9,
          "adam_beta2": 0.999,
          "adam_eps": 1e-08,
          "batch_size": 512,
          "batching_mode": "pre_shuffle",
          "context_features": "raw",
          "ema_decay": 0.0,
          "epochs": 120,
          "families": [
            "spline_flow"
          ],
          "flow_activation": "relu",
          "flow_context_dim": 64,
          "flow_kind": "nsf",
          "flow_layers": 2,
          "flow_passes": 0,
          "flow_randperm": true,
          "flow_residual": true,
          "grad_clip_norm": 20.0,
          "hidden_dim": 80,
          "hidden_layers": 2,
          "learning_rate": 0.00325,
          "loss_tail_weight": 3.0,
          "loss_weight_mode": "none",
          "lr_decay_epochs": 0,
          "lr_eta_min": 0.0,
          "lr_schedule": "cosine_step",
          "lr_warmup_steps": 500,
          "max_optimizer_steps": 0,
          "mdn_components": 5,
          "observed_seed": 20261174,
          "posterior_samples": 0,
          "progress_jsonl": "runs/06_two_exponential/03_population_npe/27_flow2_ridge_full_prior_1m_ensemble4_converge_e120/member_04_seed20261174/results/training_progress.jsonl",
          "progress_nll_offset": -2.8047915675098958,
          "reference_grid_size": 0,
          "requested_device": "auto",
          "seed": 20261174,
          "skip_training_validation": false,
          "spline_bins": 8,
          "target_ridge": 0.001,
          "target_transform": "none",
          "torch_compile": "none",
          "train_sampler": "random",
          "train_simulations": 1048576,
          "val_simulations": 65536,
          "validation_every_epochs": 1,
          "weight_decay": 0.0002
        },
        "data_seconds": 45.40244541698485,
        "epochs_completed": 120,
        "final_train_nll_standardized": -0.4554773273412138,
        "final_train_nll_target_units": -3.2602688948511096,
        "final_val_nll_standardized": -0.42369139194488525,
        "final_val_nll_target_units": -3.228482959454781,
        "history": {
          "epoch_seconds": [
            17.757716749998508,
            17.666436875006184,
            17.959077584004262,
            17.986963292001747,
            17.903987625002628,
            17.876037250010995,
            17.922210332995746,
            18.357972208992578,
            17.834405000001425,
            17.7483597920218,
            18.051690084015718,
            17.821661458001472,
            17.745193959010066,
            17.89581383400946,
            17.98391795801581,
            17.789120750006987,
            17.976250374980737,
            18.02549087497755,
            18.093575500010047,
            18.062203000008594,
            17.85019741699216,
            17.89952983398689,
            17.950161917018704,
            18.099803666991647,
            17.921381916996324,
            17.810811417002697,
            17.80614545798744,
            17.91104004101362,
            18.317001374991378,
            17.855381583009148,
            17.942390249983873,
            18.03348579199519,
            17.931459084007656,
            18.152293416991597,
            17.863305750011932,
            17.922502624976914,
            18.14805700001307,
            18.21476708300179,
            17.766578250011662,
            17.823469916009344,
            17.95693679098622,
            18.44767941700411,
            17.847924165980658,
            17.76623966699117,
            17.974906915973406,
            17.666036292008357,
            17.943581416999223,
            17.81744670800981,
            17.885725000000093,
            17.968457500013756,
            17.763493541016942,
            17.963007957994705,
            17.95001791699906,
            17.715506667009322,
            18.286715958005516,
            17.91041829198366,
            17.93708995799534,
            17.952057167014573,
            17.912180042010732,
            17.828737166011706,
            17.666531916009262,
            17.91691037500277,
            18.04108554200502,
            17.983086166990688,
            18.013592708011856,
            17.82541749998927,
            17.840556665993063,
            17.976415208016988,
            17.785967333009467,
            18.065470790985273,
            17.93135341699235,
            17.85751404199982,
            17.991820541996276,
            17.934510499995667,
            18.55201712498092,
            17.998448665981414,
            17.764131999982055,
            18.016757499979576,
            18.19942075002473,
            17.781379874999402,
            18.21655891701812,
            17.93597745799343,
            17.832643250003457,
            17.74408195799333,
            18.024312624998856,
            17.830370499985293,
            17.93481691600755,
            18.112927457987098,
            17.902269957994577,
            17.90996466600336,
            18.220708750013728,
            17.81321829202352,
            18.014710624993313,
            18.049429334001616,
            18.180243042006623,
            18.136799458006863,
            18.11572345899185,
            18.04912208300084,
            17.95354916600627,
            17.962206249998417,
            18.031427834008355,
            17.985382291983115,
            17.864460249984404,
            17.748791666992474,
            18.102168125013122,
            17.948633332998725,
            17.965588541002944,
            17.66633795798407,
            17.743077374994755,
            17.949389291985426,
            17.933209291979438,
            18.002533833001507,
            18.136490292003145,
            17.825442000001203,
            18.01997074999963,
            18.01366916700499,
            17.99993658301537,
            18.018391042016447,
            17.78608354201424,
            17.75934054199024
          ],
          "lr": [
            6.5e-06,
