{
  "best_val_nll_standardized": -0.3694682717323303,
  "best_val_nll_target_units": -3.174404425649316,
  "config": {
    "adam_beta1": 0.9,
    "adam_beta2": 0.999,
    "adam_eps": 1e-08,
    "batch_size": 512,
    "batching_mode": "pre_shuffle",
    "context_features": "raw",
    "ema_decay": 0.0,
    "epochs": 120,
    "families": [
      "spline_flow"
    ],
    "flow_activation": "relu",
    "flow_context_dim": 64,
    "flow_kind": "nsf",
    "flow_layers": 2,
    "flow_passes": 0,
    "flow_randperm": true,
    "flow_residual": true,
    "grad_clip_norm": 20.0,
    "hidden_dim": 80,
    "hidden_layers": 2,
    "learning_rate": 0.00325,
    "loss_tail_weight": 3.0,
    "loss_weight_mode": "none",
    "lr_decay_epochs": 0,
    "lr_eta_min": 0.0,
    "lr_schedule": "cosine_step",
    "lr_warmup_steps": 500,
    "max_optimizer_steps": 0,
    "mdn_components": 5,
    "observed_seed": 20261171,
    "posterior_samples": 0,
    "progress_jsonl": "runs/06_two_exponential/03_population_npe/27_flow2_ridge_full_prior_1m_ensemble4_converge_e120/member_01_seed20261171/results/training_progress.jsonl",
    "progress_nll_offset": -2.8049361539169855,
    "reference_grid_size": 0,
    "requested_device": "auto",
    "seed": 20261171,
    "skip_training_validation": false,
    "spline_bins": 8,
    "target_ridge": 0.001,
    "target_transform": "none",
    "torch_compile": "none",
    "train_sampler": "random",
    "train_simulations": 1048576,
    "val_simulations": 65536,
    "validation_every_epochs": 1,
    "weight_decay": 0.0002
  },
  "data_seconds": 45.08792654197896,
  "epochs_completed": 52,
  "final_train_nll_standardized": -0.36709524701745977,
  "final_train_nll_target_units": -3.1720314009344452,
  "final_val_nll_standardized": -0.36645427346229553,
  "final_val_nll_target_units": -3.171390427379281,
  "history": {
    "epoch_seconds": [
      18.206704917014576,
      18.109902416996192,
      18.08926091599278,
      18.048971542011714,
      18.010793541994644,
      17.99850554097793,
      18.28912791699986,
      17.913025540998206,
      17.89668904201244,
      18.178942458005622,
      18.19999233301496,
      18.148348792019533,
      17.8361619579955,
      18.22937129199272,
      17.935171833989443,
      17.90577362498152,
      17.995765875006327,
      18.087121666991152,
      17.91657329100417,
      18.121233832993312,
      18.290507166995667,
      18.066656290990068,
      18.101187749998644,
      18.112154000002192,
      17.89935379201779,
      17.949474916997133,
      17.96766620798735,
      18.069552250002744,
      17.909487500000978,
      18.036475042026723,
      17.816234917001566,
      18.012617250002222,
      17.869929834007053,
      18.34720770799322,
      18.08771200000774,
      17.93000175000634,
      17.87138608301757,
      17.741500417003408,
      17.91495050000958,
      17.984334042004775,
      17.858591416996205,
      17.743949708994478,
      17.90068424999481,
      17.868955083016772,
      18.02522729098564,
      18.06743524997728,
      18.017919250007253,
      18.104946833016584,
      17.757954582979437,
      17.988860375015065,
      18.08034754198161,
      18.069526708015474
    ],
    "lr": [
      6.5e-06,
      0.003249680554076594,
      0.0032482764168299334,
      0.0032457552265944553,
      0.00324211871831996,
      0.003237369394459154,
      0.00323151052324554,
      0.0032245461364444903,
      0.0032164810265786835,
      0.0032073207436302455,
      0.003197071591221504,
      0.0031857406222771537,
      0.003173335634170813,
      0.0031598651633593096,
      0.0031453384795083277,
      0.003129765579113486,
      0.003113157178621312,
      0.0030955247070547564,
      0.0030768802981483248,
      0.003057236781998279,
      0.0030366076762336587,
      0.0030150071767141443,
      0.0029924501477612488,
      0.0029689521119294396,
      0.002944529239324383,
      0.002919198336475491,
      0.002892976834770538,
      0.0028658827784603783,
      0.0028379348122417923,
      0.0028091521684272197,
      0.0027795546537100527,
      0.0027491626355347428,
      0.0027179970280810377,
      0.002686079277871897,
      0.0026534313490151713,
      0.002620075708089015,
      0.002586035308681611,
      0.002551333575595758,
      0.0025159943887290517,
      0.0024800420666411175,
      0.002443501349818807,
      0.002406397383651111,
      0.002368755701125435,
      0.0023306022052571552,
      0.0022919631512645,
      0.00225286512850114,
      0.0022133350421587677,
      0.002173400094752407,
      0.002133087767401049,
      0.002092425800916612,
      0.002051442176714138,
      0.002010165097556546
    ],
    "optimizer_steps": [
      2048,
      4096,
      6144,
      8192,
      10240,
      12288,
      14336,
      16384,
      18432,
      20480,
      22528,
      24576,
      26624,
      28672,
      30720,
      32768,
      34816,
      36864,
      38912,
      40960,
      43008,
      45056,
      47104,
      49152,
      51200,
      53248,
      55296,
      57344,
      59392,
      61440,
      63488,
      65536,
      67584,
      69632,
      71680,
      73728,
      75776,
      77824,
      79872,
      81920,
      83968,
      86016,
      88064,
      90112,
      92160,
      94208,
      96256,
      98304,
      100352,
      102400,
      104448,
      106496
    ],
    "train_nll": [
      0.6270312065139478,
      -0.04059174431677093,
      -0.10744580440359641,
      -0.14073778172723905,
      -0.16397949336351303,
      -0.18295413736223054,
      -0.21332298278684902,
      -0.21696521580042827,
      -0.2301436972884403,
      -0.24335126825280895,
      -0.25485541982516224,
      -0.2577513681058008,
      -0.2614263127416052,
      -0.24791843921229884,
      -0.2700423918004162,
      -0.2719071790147609,
      -0.28650359987204865,
      -0.2895561876721331,
      -0.29765779965691763,
      -0.2461250718579322,
      -0.26610420937686285,
      -0.2872981079076453,
      -0.29749707859491537,
      -0.3099534330717688,
      -0.3022307404021376,
      -0.30667042978438985,
      -0.31794318847687464,
      -0.32147154854374094,
      -0.31660313477914315,
      -0.32361468745875754,
      -0.322588500666825,
      -0.3199908992255587,
      -0.32900678683654405,
      -0.331043186099123,
      -0.33352898132579867,
      -0.32457303124920145,
      -0.3362962002247514,
      -0.3333043156490021,
      -0.3401559082954009,
      -0.3385487913283214,
      -0.3198625213244668,
      -0.34656463929241,
      -0.33772011062319507,
      -0.34847778383573313,
      -0.3491621693192428,
      -0.3483700150140976,
      -0.35300769704008417,
      -0.3532069260309072,
      -0.35994072284120193,
      -0.3514249419076805,
      -0.36037939161178656,
      -0.36709524701745977
    ],
    "train_seconds": [
      18.140934916998958,
      18.04096633300651,
      18.02294370799791,
      17.981104958016658,
      17.941527666989714,
      17.9313463329745,
      18.22348983300617,
      17.8459200829966,
      17.82957562498632,
      18.10807349998504,
      18.128157375002047,
      18.07749395800056,
      17.76881437501288,
      18.15761733299587,
      17.867844415974105,
      17.84127412500675,
      17.928132792003453,
      18.021960500016576,
      17.85233862500172,
      18.051704624987906,
      18.223032083013095,
      17.999414999998407,
      18.033266957994783,
      18.043976541986922,
      17.830626249982743,
      17.881965625012526,
      17.89996587499627,
      18.004812375002075,
      17.84067279199371,
      17.967978458997095,
      17.748545499984175,
      17.940741958009312,
      17.80399633399793,
      18.275538916990627,
      18.00980466598412,
      17.862673459021607,
      17.80777879199013,
      17.671369374991627,
      17.84481991699431,
      17.914832958980696,
      17.792939083010424,
      17.67653858300764,
      17.83361520798644,
      17.80260791600449,
      17.954588207998313,
      17.997256959002698,
      17.94837833297788,
      18.040895917016314,
      17.687176042003557,
      17.92176166700665,
      18.011146292003104,
      18.00291425001342
    ],
    "val_evaluated": [
      true,
      true,
      true,
      true,
      true,
      true,
      true,
      true,
      true,
      true,
      true,
      true,
      true,
      true,
      true,
      true,
      true,
      true,
      true,
      true,
      true,
      true,
      true,
      true,
      true,
      true,
      true,
      true,
      true,
      true,
      true,
      true,
      true,
      true,
      true,
      true,
      true,
      true,
      true,
      true,
      true,
      true,
      true,
      true,
      true,
      true,
      true,
      true,
      true,
      true,
      true,
      true
    ],
    "val_nll": [
      0.02029375173151493,
      -0.05613802373409271,
      -0.09165223687887192,
      -0.17112714052200317,
      -0.1461164355278015,
      -0.1785629689693451,
      -0.1538974642753601,
      -0.18735477328300476,
      -0.2912038564682007,
      -0.3098362684249878,
      -0.24572712182998657,
      -0.30135154724121094,
      -0.2959127426147461,
      -0.3084825575351715,
      -0.21045157313346863,
      -0.27818214893341064,
      -0.22033610939979553,
      -0.32432061433792114,
      -0.3000062108039856,
      -0.32180851697921753,
      -0.2233746200799942,
      -0.3252168297767639,
      -0.3364832401275635,
      -0.30903780460357666,
      -0.296283483505249,
      -0.350309282541275,
      -0.3447091579437256,
      -0.3694682717323303,
      -0.3339921832084656,
      -0.2792336046695709,
      -0.3072604835033417,
      -0.31784653663635254,
      -0.3488375246524811,
      -0.3026473820209503,
      -0.29379937052726746,
      -0.3276107609272003,
      -0.3581581115722656,
      -0.33866220712661743,
      -0.2962965667247772,
      -0.3298773467540741,
      -0.3433707058429718,
      -0.3357585668563843,
      -0.3466489911079407,
      -0.3466809391975403,
      -0.35857024788856506,
      -0.36304402351379395,
      -0.3561713993549347,
      -0.3307357430458069,
      -0.33532214164733887,
      -0.3418334722518921,
      -0.36821237206459045,
      -0.36645427346229553
    ],
    "val_seconds": [
      0.06571483399602585,
      0.06887000001734123,
      0.06625383399659768,
      0.06779820800875314,
      0.06919708297937177,
      0.06709079199936241,
      0.06557516698376276,
      0.06704600001103245,
      0.06704449999961071,
      0.07079854200128466,
      0.07176558399805799,
      0.07077579101314768,
      0.06727637501899153,
      0.07169104198692366,
      0.06724920801934786,
      0.0644327079935465,
      0.06757412498700432,
      0.06509108300087973,
      0.06417349999537691,
      0.06946374999824911,
      0.06742495801881887,
      0.06717145800939761,
      0.06785354198655114,
      0.06810937501722947,
      0.06866487499792129,
      0.06745150001370348,
      0.06764062499860302,
      0.06466916701174341,
      0.0687598749937024,
      0.0684336670092307,
      0.0676100839918945,
      0.07180583299486898,
      0.06586333402083255,
      0.07159891599440016,
      0.07783729198854417,
      0.06724995898548514,
      0.06354524998459965,
      0.07006991698290221,
      0.07006170798558742,
      0.06943183398107067,
      0.06558054199558683,
      0.06734816601965576,
      0.06700716700288467,
      0.06627637500059791,
      0.07056783398729749,
      0.07010800001444295,
      0.0694782079954166,
      0.06398308300413191,
      0.07071958301821724,
      0.06703033301164396,
      0.06913695801631548,
      0.06654908301425166
    ]
  },
  "loss_weight": {
    "applied": false,
    "mode": "none",
    "tail_quantile": 0.8,
    "tail_weight": 3.0
  },
  "member_index": 1,
  "model_parameters": 79430,
  "model_pt": "runs/06_two_exponential/03_population_npe/27_flow2_ridge_full_prior_1m_ensemble4_converge_e120/member_01_seed20261171/results/two_exp_population_spline_flow_model.pt",
  "optimizer_steps": 106496,
  "seed": 20261171,
  "training_seconds": 936.6015608749876,
  "two_exp_target_mode": "direct",
  "x_mean": [
    0.4911654591560364,
    -1.267927885055542,
    0.4634905755519867,
    0.15463075041770935,
    -1.4581135511398315,
    4.723440647125244,
    4.2857346534729,
    3.9127414226531982,
    3.5897812843322754,
    3.309138059616089,
    3.062276601791382,
    2.8436784744262695,
    2.649592638015747,
    2.4742863178253174,
    2.317864418029785,
    2.17592191696167,
    2.047165632247925,
    1.9296715259552002,
    1.8212254047393799,
    1.7225730419158936,
    1.6314070224761963,
    1.5472931861877441,
    1.4690895080566406,
    1.3975520133972168,
    1.3295786380767822,
    1.2672152519226074,
    1.2083832025527954,
    1.1531590223312378,
    1.1012284755706787,
    1.053168535232544,
    1.0075162649154663,
    0.9644451141357422,
    0.9248820543289185,
    0.8861995339393616,
    0.8502785563468933,
    0.816512942314148,
    0.783693790435791,
    0.7525243759155273,
    0.7241500616073608,
    0.6958051919937134,
    0.6695898175239563,
    0.6450964212417603,
    0.6209453344345093,
    0.5986101031303406,
    0.5765052437782288,
    0.556036114692688,
    0.5358710885047913,
    0.5179854035377502,
    0.4999520778656006,
    0.48266181349754333
  ],
  "x_std": [
    1.1579930782318115,
    0.643892765045166,
    1.0664089918136597,
    0.6078804135322571,
    0.6489139199256897,
    2.358341693878174,
    2.176041603088379,
    2.034492254257202,
    1.91917884349823,
    1.8231077194213867,
    1.7396652698516846,
    1.6665349006652832,
    1.6013911962509155,
    1.5414098501205444,
    1.4879628419876099,
    1.4381276369094849,
    1.3914437294006348,
    1.3484410047531128,
    1.3077805042266846,
    1.2698761224746704,
    1.2335686683654785,
    1.200555443763733,
    1.1676357984542847,
    1.1374231576919556,
    1.1082379817962646,
    1.0802290439605713,
    1.0546929836273193,
    1.0292021036148071,
    1.0044794082641602,
    0.9815303683280945,
    0.9584705233573914,
    0.9369962811470032,
    0.916691780090332,
    0.8960888981819153,
    0.8775964975357056,
    0.8588473796844482,
    0.8417079448699951,
    0.8246048092842102,
    0.8080028891563416,
    0.7919385433197021,
    0.7761641144752502,
    0.7622928619384766,
    0.7476831078529358,
    0.7338899970054626,
    0.7204928398132324,
    0.707678496837616,
    0.694980800151825,
    0.6833493113517761,
    0.6710166931152344,
    0.6597787737846375
  ],
  "z_log_det": -2.8049361539169855,
  "z_mean": [
    1.4452325105667114,
    0.5797211527824402,
    -1.049665927886963,
    -0.2874120771884918,
    -1.3864020109176636
  ],
  "z_std": [
    0.46097931265830994,
    0.8846191167831421,
    0.5503355860710144,
    0.5998435020446777,
    0.44949865341186523
  ]
}